<?xml version="1.0"?>
<!--
From OpenCV Source code:

  IMPORTANT: READ BEFORE DOWNLOADING, COPYING, INSTALLING OR USING.

  By downloading, copying, installing or using the software you agree to this license.
  If you do not agree to this license, do not download, install,
  copy or use the software.


                        Intel License Agreement
                For Open Source Computer Vision Library

 Copyright (C) 2000, Intel Corporation, all rights reserved.
 Third party copyrights are property of their respective owners.

 Redistribution and use in source and binary forms, with or without modification,
 are permitted provided that the following conditions are met:

   * Redistribution's of source code must retain the above copyright notice,
     this list of conditions and the following disclaimer.

   * Redistribution's in binary form must reproduce the above copyright notice,
     this list of conditions and the following disclaimer in the documentation
     and/or other materials provided with the distribution.

   * The name of Intel Corporation may not be used to endorse or promote products
     derived from this software without specific prior written permission.

 This software is provided by the copyright holders and contributors "as is" and
 any express or implied warranties, including, but not limited to, the implied
 warranties of merchantability and fitness for a particular purpose are disclaimed.
 In no event shall the Intel Corporation or contributors be liable for any direct,
 indirect, incidental, special, exemplary, or consequential damages
 (including, but not limited to, procurement of substitute goods or services;
 loss of use, data, or profits; or business interruption) however caused
 and on any theory of liability, whether in contract, strict liability,
 or tort (including negligence or otherwise) arising in any way out of
 the use of this software, even if advised of the possibility of such damage.

-->

<opencv_storage>
<cascade>
  <stageType>BOOST</stageType>
  <featureType>LBP</featureType>
  <height>24</height>
  <width>24</width>
  <stageParams>
    <boostType>GAB</boostType>
    <minHitRate>9.9949997663497925e-01</minHitRate>
    <maxFalseAlarm>5.0000000000000000e-01</maxFalseAlarm>
    <weightTrimRate>9.4999999999999996e-01</weightTrimRate>
    <maxDepth>1</maxDepth>
    <maxWeakCount>100</maxWeakCount></stageParams>
  <featureParams>
    <maxCatCount>256</maxCatCount>
    <featSize>1</featSize></featureParams>
  <stageNum>18</stageNum>
  <stages>
    <!-- stage 0 -->
    <_>
      <maxWeakCount>9</maxWeakCount>
      <stageThreshold>-3.0107126235961914e+00</stageThreshold>
      <weakClassifiers>
        <_>
          <internalNodes>
            0 -1 186 -21825 -21825 -203447621 -67132757 -21573 -16385
            -67132757 -21845</internalNodes>
          <leafValues>
            -8.4756398200988770e-01 5.6603461503982544e-01</leafValues></_>
        <_>
          <internalNodes>
            0 -1 303 -724568896 -1060317492 -642525867 -571080833
            -723128192 -791359033 -169872389 -1</internalNodes>
          <leafValues>
            -7.5167703628540039e-01 3.8666242361068726e-01</leafValues></_>
        <_>
          <internalNodes>
            0 -1 20 -358432062 -1073681694 -867893643 -491782417
            1459680528 -805243757 -81531153 -2097153</internalNodes>
          <leafValues>
            -6.4444142580032349e-01 3.5689571499824524e-01</leafValues></_>
        <_>
          <internalNodes>
            0 -1 562 -193 -67108865 -453 -218103813 -41993216 2002255471
            -184812272 -209715201</internalNodes>
          <leafValues>
            -4.2927941679954529e-01 4.4995212554931641e-01</leafValues></_>
        <_>
          <internalNodes>
            0 -1 65 -85990678 -152048977 -795674536 -260607241
            1148699716 -462994322 -520633121 -201326593</internalNodes>
          <leafValues>
            -4.3800097703933716e-01 4.1378259658813477e-01</leafValues></_>
        <_>
          <internalNodes>
            0 -1 240 -525278720 1362208277 4194336 1978917479 -256778065
            -1698701541 -1548567589 -2101521</internalNodes>
          <leafValues>
            -4.6820998191833496e-01 3.6692517995834351e-01</leafValues></_>
        <_>
          <internalNodes>
            0 -1 532 -134223965 -1566380285 -520359888 -478939742
            -470824989 -1978011653 -252194317 -134217729</internalNodes>
          <leafValues>
            -3.2775476574897766e-01 4.7482508420944214e-01</leafValues></_>
        <_>
          <internalNodes>
            0 -1 97 -287313921 -359923717 1056898943 -486867984
            1323779653 -11042977 -212124 -151584912</internalNodes>
          <leafValues>
            -4.0649437904357910e-01 3.7769207358360291e-01</leafValues></_>
        <_>
          <internalNodes>
            0 -1 146 -545587267 1002087743 -1749040399 825370162
            -1049169 -2131209 -155333464 716915848</internalNodes>
          <leafValues>
            -4.1165745258331299e-01 3.4405249357223511e-01</leafValues></_></weakClassifiers></_>
    <!-- stage 1 -->
    <_>
      <maxWeakCount>14</maxWeakCount>
      <stageThreshold>-2.7631089687347412e+00</stageThreshold>
      <weakClassifiers>
        <_>
          <internalNodes>
            0 -1 186 -17409 -21505 -67132741 -21829 -17473 -16385
            -67130693 -21829</internalNodes>
          <leafValues>
            -8.0057823657989502e-01 4.8064544796943665e-01</leafValues></_>
        <_>
          <internalNodes>
            0 -1 199 -263130896 -704686625 4202545 1442681311 -216794181
            -517 822345727 -1025</internalNodes>
          <leafValues>
            -6.7234051227569580e-01 3.0872681736946106e-01</leafValues></_>
        <_>
          <internalNodes>
            0 -1 588 -137 -268435457 -262283 -16842757 -546310379
            -268435521 -535212 -16842764</internalNodes>
          <leafValues>
            -4.4276654720306396e-01 4.9201285839080811e-01</leafValues></_>
        <_>
          <internalNodes>
            0 -1 57 -285216849 -487657489 -50661130 -487915542 -8388753
            2144337791 -536881694 -185073673</internalNodes>
          <leafValues>
            -4.7273966670036316e-01 3.7503752112388611e-01</leafValues></_>
        <_>
          <internalNodes>
            0 -1 226 -1464148867 -1363086732 -393217 -38470156
            -1889735171 -16777219 -1342571011 -1474233024</internalNodes>
          <leafValues>
            -4.9372351169586182e-01 3.3498167991638184e-01</leafValues></_>
        <_>
          <internalNodes>
            0 -1 502 -77 -815792321 -252709968 -201328641 -536870929
            -842007553 -168298511 -134742041</internalNodes>
          <leafValues>
            -3.0241581797599792e-01 5.1277107000350952e-01</leafValues></_>
        <_>
          <internalNodes>
            0 -1 259 -16890281 -16877765 -1628504577 978499199
            -285319340 -299962790 -553976588 -98509200</internalNodes>
          <leafValues>
            -4.1505044698715210e-01 3.4960046410560608e-01</leafValues></_>
        <_>
          <internalNodes>
            0 -1 377 -1359010257 3407807 -1367709086 -1504723025
            1717511685 -1073782913 1794981924 -37748809</internalNodes>
          <leafValues>
            -4.3444320559501648e-01 3.4564274549484253e-01</leafValues></_>
        <_>
          <internalNodes>
            0 -1 400 -1363517583 784090077 -75 -54603920 -1074796643
            -1342440452 -152625676 -1897905152</internalNodes>
          <leafValues>
            -4.6726280450820923e-01 2.8497859835624695e-01</leafValues></_>
        <_>
          <internalNodes>
            0 -1 512 -11011281 2000682879 -134479969 1920990207 -6849771
            2004828031 -185599628 -151789569</internalNodes>
          <leafValues>
            -3.9865818619728088e-01 3.4247192740440369e-01</leafValues></_>
        <_>
          <internalNodes>
            0 -1 411 1082186970 1550861358 1075509759 1835781975 3292
            -27960665 2017523455 -278664193</internalNodes>
          <leafValues>
            -4.3671825528144836e-01 3.1672745943069458e-01</leafValues></_>
        <_>
          <internalNodes>
            0 -1 38 -3409 -126881931 -352391438 -756040713 -698360507
            2136993127 -150994986 -184549377</internalNodes>
          <leafValues>
            -3.6880216002464294e-01 3.5231050848960876e-01</leafValues></_>
        <_>
          <internalNodes>
            0 -1 475 -1677191851 -1614930569 -268502017 -69281793
            -1045392 -1 -1665378819 -1126935083</internalNodes>
          <leafValues>
            -4.5905780792236328e-01 2.7803763747215271e-01</leafValues></_>
        <_>
          <internalNodes>
            0 -1 273 -402661201 1359990571 610248226 -205784848
            1157500079 267903981 -2046833684 -203498274</internalNodes>
          <leafValues>
            -3.6246719956398010e-01 3.5579428076744080e-01</leafValues></_></weakClassifiers></_>
    <!-- stage 2 -->
    <_>
      <maxWeakCount>17</maxWeakCount>
      <stageThreshold>-2.8258779048919678e+00</stageThreshold>
      <weakClassifiers>
        <_>
          <internalNodes>
            0 -1 193 -21569 -21697 872095931 -23877 -268457025 -17409
            -335566149 -21569</internalNodes>
          <leafValues>
            -8.1046146154403687e-01 2.4882100522518158e-01</leafValues></_>
        <_>
          <internalNodes>
            0 -1 45 -268439553 1191551498 1867503479 251856135 -1
            -276824321 -1 1333788671</internalNodes>
          <leafValues>
            -5.8137881755828857e-01 3.2349658012390137e-01</leafValues></_>
        <_>
          <internalNodes>
            0 -1 413 -590349248 -1067852452 -318898315 -570556937
            -597764352 -640688194 -691012065 -1</internalNodes>
          <leafValues>
            -5.4454189538955688e-01 3.2408431172370911e-01</leafValues></_>
        <_>
          <internalNodes>
            0 -1 82 -16781569 -41 -251729666 -218367233 -343947697
            -8401057 -184615169 -218103809</internalNodes>
          <leafValues>
            -3.1990534067153931e-01 4.9947562813758850e-01</leafValues></_>
        <_>
          <internalNodes>
            0 -1 242 -234887381 1060618005 -1300796894 1945629683
            1174275983 2147434282 -236979478 -1029</internalNodes>
          <leafValues>
            -3.5933837294578552e-01 4.0142431855201721e-01</leafValues></_>
        <_>
          <internalNodes>
            0 -1 466 -385096400 16961568 1576522033 1964111120
            -1103106893 -1893467344 1744826865 -1050645</internalNodes>
          <leafValues>
            -3.3525419235229492e-01 4.1464692354202271e-01</leafValues></_>
        <_>
          <internalNodes>
            0 -1 42 -290461717 -1431896090 -1346390285 -352651406
            -67633665 1291826171 2008020467 -671090953</internalNodes>
          <leafValues>
            -3.6296707391738892e-01 3.5757127404212952e-01</leafValues></_>
        <_>
          <internalNodes>
            0 -1 591 -268440145 -898957525 -67634256 -387777054
            -419438809 264962047 -436734444 -168296457</internalNodes>
          <leafValues>
            -4.0693947672843933e-01 3.1426095962524414e-01</leafValues></_>
        <_>
          <internalNodes>
            0 -1 92 -246153648 -785320016 -607715975 -139462158
            1413602352 -110834707 1299412043 -537936450</internalNodes>
          <leafValues>
            -3.5874646902084351e-01 3.6500015854835510e-01</leafValues></_>
        <_>
          <internalNodes>
            0 -1 573 -1417711853 242118455 -4260873 710868758 -536873388
            -1393577065 -16785324 -256180748</internalNodes>
          <leafValues>
            -4.2691567540168762e-01 2.7114164829254150e-01</leafValues></_>
        <_>
          <internalNodes>
            0 -1 508 -287696811 -536977537 1805418487 -1672579
            -1395637196 -83010 -835420716 -51880755</internalNodes>
          <leafValues>
            -4.1956534981727600e-01 2.5996914505958557e-01</leafValues></_>
        <_>
          <internalNodes>
            0 -1 161 577185551 782237545 1626595831 -167870610
            1308564743 -1388842229 -219152421 -279523370</internalNodes>
          <leafValues>
            -4.0449929237365723e-01 2.7527832984924316e-01</leafValues></_>
        <_>
          <internalNodes>
            0 -1 538 -167776569 84606467 -387977168 -495910992
            -1141965601 -858783861 -169872158 -234889481</internalNodes>
          <leafValues>
            -3.3179914951324463e-01 3.2004407048225403e-01</leafValues></_>
        <_>
          <internalNodes>
            0 -1 298 -707410698 -653269809 -361102221 -234945533
            1077985533 -2244762 641925867 -5299265</internalNodes>
          <leafValues>
            -2.8965306282043457e-01 3.6002555489540100e-01</leafValues></_>
        <_>
          <internalNodes>
            0 -1 97 -419436929 785313759 -16849217 -492374272 1332704855
            2145906503 -277400715 -487140240</internalNodes>
          <leafValues>
            -3.9778530597686768e-01 2.7583622932434082e-01</leafValues></_>
        <_>
          <internalNodes>
            0 -1 560 -537133539 -480936033 803205851 -218665985 -2288
            -8553665 2130640752 -218107905</internalNodes>
          <leafValues>
            -3.1297707557678223e-01 3.3166959881782532e-01</leafValues></_>
        <_>
          <internalNodes>
            0 -1 361 -2005918608 -633800843 -2359297 -1074086915
            -868728844 -12652553 -285671431 -2431748</internalNodes>
          <leafValues>
            -3.8021603226661682e-01 2.7037429809570312e-01</leafValues></_></weakClassifiers></_>
    <!-- stage 3 -->
    <_>
      <maxWeakCount>21</maxWeakCount>
      <stageThreshold>-2.8219273090362549e+00</stageThreshold>
      <weakClassifiers>
        <_>
          <internalNodes>
            0 -1 188 -1 -4097 -21829 -4216149 -16449 -1 -21845 -21845</internalNodes>
          <leafValues>
            -7.4256432056427002e-01 3.2656860351562500e-01</leafValues></_>
        <_>
          <internalNodes>
            0 -1 415 1080182015 1945370623 -486822017 -4097 16056831
            -32769 -37889 -36865</internalNodes>
          <leafValues>
            -5.3326368331909180e-01 3.0477166175842285e-01</leafValues></_>
        <_>
          <internalNodes>
            0 -1 52 -98369982 -265093510 -199042952 -804192513
            -732635376 -193732745 -26028835 -257</internalNodes>
          <leafValues>
            -5.1298666000366211e-01 3.0688613653182983e-01</leafValues></_>
        <_>
          <internalNodes>
            0 -1 598 -201 -427819521 -20971659 -285212742 -134217899
            -570425385 -671620844 -184614921</internalNodes>
          <leafValues>
            -3.6008435487747192e-01 3.8512575626373291e-01</leafValues></_>
        <_>
          <internalNodes>
            0 -1 470 -281739852 -5709836 -536870915 -4390916 -1086324739
            -263683 -272638467 -8715</internalNodes>
          <leafValues>
            -2.8390455245971680e-01 4.2978239059448242e-01</leafValues></_>
        <_>
          <internalNodes>
            0 -1 234 -254476622 -722102443 5255696 1375022931 -621304133
            -262546 -1576813637 -1084380181</internalNodes>
          <leafValues>
            -4.2531377077102661e-01 2.5637149810791016e-01</leafValues></_>
        <_>
          <internalNodes>
            0 -1 4 -268439569 -286593026 -1025 -285278210 -268441601
            1325400055 -2057 -134217729</internalNodes>
          <leafValues>
            -3.1960958242416382e-01 3.7615776062011719e-01</leafValues></_>
        <_>
          <internalNodes>
            0 -1 255 1278361620 2130320947 -84509057 -583123137
            1276644380 -587243537 -1070854980 -21331969</internalNodes>
          <leafValues>
            -4.1663318872451782e-01 2.6386293768882751e-01</leafValues></_>
        <_>
          <internalNodes>
            0 -1 334 -824209625 -824378537 -268439667 -528742673
            -428352234 -54593565 -364974586 -388306364</internalNodes>
          <leafValues>
            -3.5021200776100159e-01 2.8925934433937073e-01</leafValues></_>
        <_>
          <internalNodes>
            0 -1 535 -301990917 -2005209454 1455080720 -575801999
            -621285637 -1896874273 1163219285 -570950157</internalNodes>
          <leafValues>
            -2.7688026428222656e-01 3.5264241695404053e-01</leafValues></_>
        <_>
          <internalNodes>
            0 -1 357 82845041 -9300771 -1208008705 -1073795233
            -1447395912 -1342193665 -1074118657 -1078261702</internalNodes>
          <leafValues>
            -2.8784021735191345e-01 3.5416600108146667e-01</leafValues></_>
        <_>
          <internalNodes>
            0 -1 264 -572990083 2109603159 188387115 -1347821661
            1778269978 -18874369 262874923 738192315</internalNodes>
          <leafValues>
            -3.5109731554985046e-01 2.8349980711936951e-01</leafValues></_>
        <_>
          <internalNodes>
            0 -1 26 -285216913 1785724927 -554998174 -521732246
            1736437623 1936981615 -526476 -152568334</internalNodes>
          <leafValues>
            -4.0891829133033752e-01 2.1826049685478210e-01</leafValues></_>
        <_>
          <internalNodes>
            0 -1 551 -26484939 -897884545 -9 -1459947678 -1107427339
            -553648265 -50463040 -85262342</internalNodes>
          <leafValues>
            -2.6929378509521484e-01 3.2753577828407288e-01</leafValues></_>
        <_>
          <internalNodes>
            0 -1 244 1735910179 20709299 -352849357 905445054 2104695725
            121233389 -2098434 -1259341894</internalNodes>
          <leafValues>
            -3.1224960088729858e-01 2.7709081768989563e-01</leafValues></_>
        <_>
          <internalNodes>
            0 -1 575 -62127 -546496737 -1090519297 -83887073 -311214524
            -8388841 -1094812048 -17110401</internalNodes>
          <leafValues>
            -2.8960165381431580e-01 3.0514195561408997e-01</leafValues></_>
        <_>
          <internalNodes>
            0 -1 394 -1360733740 -23327620 -65537 -106627 -557842959
            -17104900 -1347543112 -1363540952</internalNodes>
          <leafValues>
            -3.0646184086799622e-01 3.0350899696350098e-01</leafValues></_>
        <_>
          <internalNodes>
            0 -1 79 -495196609 1513610287 -1095043462 -1338442065
            -915715068 1602187093 -16860452 -51126273</internalNodes>
          <leafValues>
            -2.8066691756248474e-01 3.0242821574211121e-01</leafValues></_>
        <_>
          <internalNodes>
            0 -1 426 -539492866 -724077572 -471026296 -1845988136
            -897843266 549118924 -117641062 -252970246</internalNodes>
          <leafValues>
            -2.6635584235191345e-01 3.1322434544563293e-01</leafValues></_>
        <_>
          <internalNodes>
            0 -1 306 1985947439 1538256807 -537595996 -45959388
            1098203391 738164735 1323519645 -50905084</internalNodes>
          <leafValues>
            -3.1255033612251282e-01 2.5906163454055786e-01</leafValues></_>
        <_>
          <internalNodes>
            0 -1 185 -1607287439 -1096664656 1065090815 -1145561739
            -336396295 -1614888963 -1090521099 -1392763867</internalNodes>
          <leafValues>
            -3.7116596102714539e-01 2.2107130289077759e-01</leafValues></_></weakClassifiers></_>
    <!-- stage 4 -->
    <_>
      <maxWeakCount>23</maxWeakCount>
      <stageThreshold>-2.6346776485443115e+00</stageThreshold>
      <weakClassifiers>
        <_>
          <internalNodes>
            0 -1 228 -17409 -20481 -21825 -21829 -17473 -1 -56645 -21825</internalNodes>
          <leafValues>
            -7.6104873418807983e-01 1.4994148910045624e-01</leafValues></_>
        <_>
          <internalNodes>
            0 -1 153 -716835360 -721362944 -139463179 -6819921
            -715785217 -109576209 -142608385 -1</internalNodes>
          <leafValues>
            -5.5292958021163940e-01 2.7239125967025757e-01</leafValues></_>
        <_>
          <internalNodes>
            0 -1 513 -4305 -129 -311431169 -268435457 -268456149
            -1116226033 -1364220886 -65</internalNodes>
          <leafValues>
            -2.9034990072250366e-01 5.2506375312805176e-01</leafValues></_>
        <_>
          <internalNodes>
            0 -1 239 -201348433 2138553655 -1569217997 -134239327
            -893480977 -9297 -922752341 -2101333</internalNodes>
          <leafValues>
            -2.9216858744621277e-01 3.9861905574798584e-01</leafValues></_>
        <_>
          <internalNodes>
            0 -1 257 -73729 -8454209 -8717313 -574980097 -16974340
            -3345057 -17236230 -12910593</internalNodes>
          <leafValues>
            -2.3285925388336182e-01 4.8378914594650269e-01</leafValues></_>
        <_>
          <internalNodes>
            0 -1 496 -2097165 36435747 -235409232 -235405966 -134218757
            -1900044369 -771755277 -201326593</internalNodes>
          <leafValues>
            -2.5161847472190857e-01 4.1222783923149109e-01</leafValues></_>
        <_>
          <internalNodes>
            0 -1 5 -353374225 717941738 -1056769 -959513662 -303562769
            1081278423 -201326597 -806885385</internalNodes>
          <leafValues>
            -2.6756688952445984e-01 3.6140835285186768e-01</leafValues></_>
        <_>
          <internalNodes>
            0 -1 371 -492313309 -620764032 -286265553 -923810942
            1581412130 -459221294 -495750364 -357636608</internalNodes>
          <leafValues>
            -3.5642185807228088e-01 2.6375457644462585e-01</leafValues></_>
        <_>
          <internalNodes>
            0 -1 350 -804217516 -764129284 -539033601 -574875401
            -1104134672 -5702659 -5497347 -1078325972</internalNodes>
          <leafValues>
            -3.1625771522521973e-01 2.8882712125778198e-01</leafValues></_>
        <_>
          <internalNodes>
            0 -1 125 -135793673 -540020993 -1302724615 1088937111 -149
            -875860478 -546052285 1275562759</internalNodes>
          <leafValues>
            -2.9791980981826782e-01 2.9594138264656067e-01</leafValues></_>
        <_>
          <internalNodes>
            0 -1 469 -274269279 237171360 98530641 -571357712 -272716101
            -1893728349 167771601 -575676931</internalNodes>
          <leafValues>
            -2.7112749218940735e-01 3.0670833587646484e-01</leafValues></_>
        <_>
          <internalNodes>
            0 -1 33 -25170329 -25315041 -324348706 -1876755713
            1291799061 1749513567 -50369532 1951924031</internalNodes>
          <leafValues>
            -3.3740800619125366e-01 2.4264413118362427e-01</leafValues></_>
        <_>
          <internalNodes>
            0 -1 517 -1467942608 -1093130276 -1703939 -1610684417
            -1433891092 -739329 -1904689416 -1998060303</internalNodes>
          <leafValues>
            -3.2986116409301758e-01 2.5532561540603638e-01</leafValues></_>
        <_>
          <internalNodes>
            0 -1 18 1113911268 585486048 -1391481269 670033613
            1717960624 1903556567 1333225295 1341095934</internalNodes>
          <leafValues>
            -4.4647654891014099e-01 1.7306701838970184e-01</leafValues></_>
        <_>
          <internalNodes>
            0 -1 577 -10485985 1918205567 1992274683 1660942973
            -136362496 1431830364 -488723896 1649672127</internalNodes>
          <leafValues>
            -3.0886170268058777e-01 2.4678932130336761e-01</leafValues></_>
        <_>
          <internalNodes>
            0 -1 461 -30147024 -665839792 -1099038724 -577468364
            -407257635 -51579407 -1422479368 -1145432808</internalNodes>
          <leafValues>
            -2.8569349646568298e-01 2.8144377470016479e-01</leafValues></_>
        <_>
          <internalNodes>
            0 -1 401 -293071563 -11075593 -543209485 -4294657
            -1074332679 -1175490839 -173581111 -541563531</internalNodes>
          <leafValues>
            -3.0512291193008423e-01 2.4996702373027802e-01</leafValues></_>
        <_>
          <internalNodes>
            0 -1 412 1087696838 273983359 -1124089889 636939864
            1375014144 1031751549 805187119 2130664059</internalNodes>
          <leafValues>
            -4.1025409102439880e-01 1.7652577161788940e-01</leafValues></_>
        <_>
          <internalNodes>
            0 -1 553 -1 -818217171 -605161742 -957415798 -134748177
            -1052778577 -135272512 -167780370</internalNodes>
          <leafValues>
            -2.5496965646743774e-01 2.8677225112915039e-01</leafValues></_>
        <_>
          <internalNodes>
            0 -1 357 -1431694800 -1087086948 -1078509569 2113551742
            800783761 -1141948709 1073356283 800983562</internalNodes>
          <leafValues>
            -3.5735726356506348e-01 2.0812296867370605e-01</leafValues></_>
        <_>
          <internalNodes>
            0 -1 28 -9961873 -97683341 -19512822 -520953106 2130699344
            -1820721570 1811890780 -134482177</internalNodes>
          <leafValues>
            -2.6265949010848999e-01 2.8343459963798523e-01</leafValues></_>
        <_>
          <internalNodes>
            0 -1 117 1608502975 891567910 -21501187 657309322 1879010789
            1073739679 -285226856 218068551</internalNodes>
          <leafValues>
            -3.5305655002593994e-01 2.0595999062061310e-01</leafValues></_>
        <_>
          <internalNodes>
            0 -1 372 1465278250 1001422634 -27464129 1571289766
            628886751 -1090630677 1240296410 2079081383</internalNodes>
          <leafValues>
            -3.5286673903465271e-01 2.0468249917030334e-01</leafValues></_></weakClassifiers></_>
    <!-- stage 5 -->
    <_>
      <maxWeakCount>29</maxWeakCount>
      <stageThreshold>-2.7828555107116699e+00</stageThreshold>
      <weakClassifiers>
        <_>
          <internalNodes>
            0 -1 143 -1025 -20481 -2114885 -1140872517 -65 -1 -21829
            -67130437</internalNodes>
          <leafValues>
            -7.2662949562072754e-01 1.2500999867916107e-01</leafValues></_>
        <_>
          <internalNodes>
            0 -1 448 -799997986 1431697407 -499978241 -136316933
            -1069496116 -12582961 -254300209 -1</internalNodes>
          <leafValues>
            -5.3173339366912842e-01 2.5507643818855286e-01</leafValues></_>
        <_>
          <internalNodes>
            0 -1 206 825618707 296810291 -1342212681 -1074268243
            1979708927 -1073742913 -534853 -1073742929</internalNodes>
          <leafValues>
            -3.5705927014350891e-01 3.4529092907905579e-01</leafValues></_>
        <_>
          <internalNodes>
            0 -1 505 -15 -458860 -11 -1064 -1363148875 -268435457
            -1614809867 -536879884</internalNodes>
          <leafValues>
            -2.5884124636650085e-01 4.4844716787338257e-01</leafValues></_>
        <_>
          <internalNodes>
            0 -1 133 -92352802 -10786049 -495780098 840101847 1079263320
            -864073633 -265253634 -92602369</internalNodes>
          <leafValues>
            -3.4241345524787903e-01 2.9750880599021912e-01</leafValues></_>
        <_>
          <internalNodes>
            0 -1 478 -536871121 -33554441 -161 -212075041 -36176123
            2071985471 -268568204 -1</internalNodes>
          <leafValues>
            -2.6754948496818542e-01 3.5928595066070557e-01</leafValues></_>
        <_>
          <internalNodes>
            0 -1 271 -193674016 -780467185 550772737 -169924689
            -533674595 -537577178 -207247361 -1421234257</internalNodes>
          <leafValues>
            -3.8444522023200989e-01 2.5770914554595947e-01</leafValues></_>
        <_>
          <internalNodes>
            0 -1 21 -352325905 1089908463 -495530458 -72421754
            -679491787 1189078911 -134217897 -129</internalNodes>
          <leafValues>
            -2.8063336014747620e-01 3.1101503968238831e-01</leafValues></_>
        <_>
          <internalNodes>
            0 -1 406 -353635035 -137627871 -2059 -1065165 -36739603
            -85000259 -48106325 -289254143</internalNodes>
          <leafValues>
            -2.7783858776092529e-01 3.0477118492126465e-01</leafValues></_>
        <_>
          <internalNodes>
            0 -1 526 -269750797 -2140494106 -811095888 -1507710304
            -851443789 -805306369 1076052112 -926943501</internalNodes>
          <leafValues>
            -3.0640080571174622e-01 2.6514983177185059e-01</leafValues></_>
        <_>
          <internalNodes>
            0 -1 395 145757268 -1619524353 -1140957185 -1073805709
            -1363558915 -1612464385 989801919 -1346687813</internalNodes>
          <leafValues>
            -2.8522607684135437e-01 2.9019784927368164e-01</leafValues></_>
        <_>
          <internalNodes>
            0 -1 354 -1398997644 -18973481 -65537 -391180 -30082064
            -1092812813 -537329987 -1992686560</internalNodes>
          <leafValues>
            -3.0253398418426514e-01 2.6138010621070862e-01</leafValues></_>
        <_>
          <internalNodes>
            0 -1 335 -289419481 721157439 1876946526 145878987
            -469866650 -52756562 -405806844 -352328922</internalNodes>
          <leafValues>
            -3.1127244234085083e-01 2.5451323390007019e-01</leafValues></_>
        <_>
          <internalNodes>
            0 -1 549 243228420 218012433 -1309720651 943635278 -2130636
            -76969 -34095116 -84345888</internalNodes>
          <leafValues>
            -3.8942956924438477e-01 1.8607941269874573e-01</leafValues></_>
        <_>
          <internalNodes>
            0 -1 34 -266433 -78120893 -496836941 2259227 -564470204
            -61131435 -25700865 -77072409</internalNodes>
          <leafValues>
            -2.2700096666812897e-01 3.2976412773132324e-01</leafValues></_>
        <_>
          <internalNodes>
            0 -1 214 -25497914 -713068818 -18678020 -38309170 1145046212
            -28048875 -992684836 -572329</internalNodes>
          <leafValues>
            -2.5223940610885620e-01 2.8372609615325928e-01</leafValues></_>
        <_>
          <internalNodes>
            0 -1 603 -537923805 -1570349121 -1406450143 -528488461
            -1207970009 1312808819 -170461691 -202375425</internalNodes>
          <leafValues>
            -2.6037535071372986e-01 2.7655145525932312e-01</leafValues></_>
        <_>
          <internalNodes>
            0 -1 231 -358179595 -1124283023 -4718599 -1080540683
            -50336584 -16912899 -34144263 -1204781260</internalNodes>
          <leafValues>
            -2.9105487465858459e-01 2.4838480353355408e-01</leafValues></_>
        <_>
          <internalNodes>
            0 -1 468 1861207074 33992450 552302640 -845846095 127392939
            -2010385374 -402861693 -840957973</internalNodes>
          <leafValues>
            -3.1840178370475769e-01 2.2428664565086365e-01</leafValues></_>
        <_>
          <internalNodes>
            0 -1 48 -219676971 -788530452 1757982469 -1596611093
            -201361836 -237078535 -1188065 -32769</internalNodes>
          <leafValues>
            -2.2021718323230743e-01 3.1357845664024353e-01</leafValues></_>
        <_>
          <internalNodes>
            0 -1 362 45483637 -1673630273 -1124401153 -1132830721
            -12681424 -4350337 -7578376 -1158001164</internalNodes>
          <leafValues>
            -3.2318627834320068e-01 2.2040320932865143e-01</leafValues></_>
        <_>
          <internalNodes>
            0 -1 522 101845520 316046763 1073643389 505440958 250109427
            -443522 -1090901074 -355977158</internalNodes>
          <leafValues>
            -3.7951406836509705e-01 1.7805422842502594e-01</leafValues></_>
        <_>
          <internalNodes>
            0 -1 12 -326111569 716091118 -204492461 -320451934
            1735376895 142941693 1992249719 -536906377</internalNodes>
          <leafValues>
            -2.7925923466682434e-01 2.5582820177078247e-01</leafValues></_>
        <_>
          <internalNodes>
            0 -1 273 -335699153 825745187 1902471729 -671354680
            1198934719 116818668 1677457288 -506465546</internalNodes>
          <leafValues>
            -2.8687247633934021e-01 2.4071353673934937e-01</leafValues></_>
        <_>
          <internalNodes>
            0 -1 511 -50737835 -66689 -1348872193 -2135950477 1660667100
            -314327247 -1594620676 -1426065409</internalNodes>
          <leafValues>
            -2.0995414257049561e-01 3.1608641147613525e-01</leafValues></_>
        <_>
          <internalNodes>
            0 -1 349 -549519620 -166199367 170397225 237079210
            1651487799 1717989682 -352376814 251907123</internalNodes>
          <leafValues>
            -3.3890408277511597e-01 2.0311875641345978e-01</leafValues></_>
        <_>
          <internalNodes>
            0 -1 131 1860693998 -9643094 -17896226 -18547090 -1638511019
            -1891336291 1424310516 -218663214</internalNodes>
          <leafValues>
            -3.4464877843856812e-01 1.9432385265827179e-01</leafValues></_>
        <_>
          <internalNodes>
            0 -1 290 -1903557625 -51204105 -1645477953 -1074149467
            -51398499 -1057 -427889155 -1907432448</internalNodes>
          <leafValues>
            -3.0898350477218628e-01 2.0654851198196411e-01</leafValues></_>
        <_>
          <internalNodes>
            0 -1 383 1649140228 2045736959 -407961692 2062241769
            1968533861 1953854295 -780796164 -261751433</internalNodes>
          <leafValues>
            -3.5372060537338257e-01 1.8264999985694885e-01</leafValues></_></weakClassifiers></_>
    <!-- stage 6 -->
    <_>
      <maxWeakCount>30</maxWeakCount>
      <stageThreshold>-2.6539962291717529e+00</stageThreshold>
      <weakClassifiers>
        <_>
          <internalNodes>
            0 -1 155 -21569 -4214977 -67665221 -4216277 -805457985
            -270553089 -654341461 -21585</internalNodes>
          <leafValues>
            -7.4209779500961304e-01 -2.2601706907153130e-02</leafValues></_>
        <_>
          <internalNodes>
            0 -1 404 -67108865 -4161 -1 -262230 -1463874817 -67109889
            1626292479 2147434735</internalNodes>
          <leafValues>
            -4.8751765489578247e-01 2.3402176797389984e-01</leafValues></_>
        <_>
          <internalNodes>
            0 -1 127 -285212673 -352387073 -270532609 -219217954
            -268435465 -75497473 -4108 -16843276</internalNodes>
          <leafValues>
            -3.3291158080101013e-01 3.6764675378799438e-01</leafValues></_>
        <_>
          <internalNodes>
            0 -1 504 -13 -11534926 -135006223 -1 -272630793 -1947209801
            1438111189 -704645641</internalNodes>
          <leafValues>
            -2.5780770182609558e-01 4.3143624067306519e-01</leafValues></_>
        <_>
          <internalNodes>
            0 -1 157 1431434576 1359011712 -1317546897 -6294797
            1360065777 -589041985 1896932383 -67132421</internalNodes>
          <leafValues>
            -3.8047379255294800e-01 2.6470524072647095e-01</leafValues></_>
        <_>
          <internalNodes>
            0 -1 220 -318846209 -566598001 -789389601 2047014143
            -858106788 -128039073 -94572804 -99418113</internalNodes>
          <leafValues>
            -2.5699153542518616e-01 3.4514418244361877e-01</leafValues></_>
        <_>
          <internalNodes>
            0 -1 580 -4349 1987575667 -52429330 -738197601 1630471936
            1359475991 -1660958456 -1</internalNodes>
          <leafValues>
            -2.2902558743953705e-01 3.8632223010063171e-01</leafValues></_>
        <_>
          <internalNodes>
            0 -1 460 -65362672 269493040 -8593411 -76480580 -1145075523
            -1206223049 -1081368643 -1145315909</internalNodes>
          <leafValues>
            -2.5347742438316345e-01 3.3332008123397827e-01</leafValues></_>
        <_>
          <internalNodes>
            0 -1 457 -1074 -958464020 -855659380 11292120 -1228934406
            -2007174940 -123739008 1089469403</internalNodes>
          <leafValues>
            -4.1143622994422913e-01 1.8754173815250397e-01</leafValues></_>
        <_>
          <internalNodes>
            0 -1 342 -286265822 -2134858777 -323337728 -992546882
            -51058943 -2073671817 -580544908 -572588583</internalNodes>
          <leafValues>
            -3.4811550378799438e-01 2.2367748618125916e-01</leafValues></_>
        <_>
          <internalNodes>
            0 -1 44 -273944593 -286589273 -134251521 -286065413
            -1358954817 66451931 -201328649 -134349385</internalNodes>
          <leafValues>
            -3.1613913178443909e-01 2.2561754286289215e-01</leafValues></_>
        <_>
          <internalNodes>
            0 -1 74 -294949362 -134322242 753919611 -72422170 1193220464
            -101083143 2013222775 -34954</internalNodes>
          <leafValues>
            -2.9055178165435791e-01 2.4939294159412384e-01</leafValues></_>
        <_>
          <internalNodes>
            0 -1 347 1104 483940464 1475641341 1031418037 858802164
            -1129379468 -1346764807 -1346693069</internalNodes>
          <leafValues>
            -3.1181216239929199e-01 2.2954282164573669e-01</leafValues></_>
        <_>
          <internalNodes>
            0 -1 115 -530516272 -388837766 239342917 -822134045
            -1208945232 -103056385 -619473611 -1082215844</internalNodes>
          <leafValues>
            -4.5763000845909119e-01 1.6253624856472015e-01</leafValues></_>
        <_>
          <internalNodes>
            0 -1 328 -76163 -8627331 -4195331 -615362625 -282198059
            -4546 -16842756 -77456800</internalNodes>
          <leafValues>
            -2.3530210554599762e-01 2.9530453681945801e-01</leafValues></_>
        <_>
          <internalNodes>
            0 -1 138 -453013981 -1897486017 -671386761 1862203373
            -1881522831 -539754753 -16777355 -67449351</internalNodes>
          <leafValues>
            -2.8186315298080444e-01 2.4081416428089142e-01</leafValues></_>
        <_>
          <internalNodes>
            0 -1 481 -1397746575 -675369227 -68632609 -462849
            -1347504748 -1074856001 -6648579 -1092090371</internalNodes>
          <leafValues>
            -2.6640197634696960e-01 2.5290316343307495e-01</leafValues></_>
        <_>
          <internalNodes>
            0 -1 339 2084564527 1065353007 -827602330 -1212435478
            1969177197 1202217763 -228723281 -734266773</internalNodes>
          <leafValues>
            -2.8879895806312561e-01 2.3409005999565125e-01</leafValues></_>
        <_>
          <internalNodes>
            0 -1 592 -335557645 -1024479303 -37455 687330034 1458961905
            144350897 364860885 -704644877</internalNodes>
          <leafValues>
            -2.5075903534889221e-01 2.6367673277854919e-01</leafValues></_>
        <_>
          <internalNodes>
            0 -1 464 144720944 170547384 -1665139363 -1276644244
            235911585 -1078395672 171391480 717161982</internalNodes>
          <leafValues>
            -3.8154938817024231e-01 1.7219027876853943e-01</leafValues></_>
        <_>
          <internalNodes>
            0 -1 104 -20054373 2136303143 2019229300 270196607
            1315327236 -294205922 -528683828 -76351521</internalNodes>
          <leafValues>
            -2.5431132316589355e-01 2.5570586323738098e-01</leafValues></_>
        <_>
          <internalNodes>
            0 -1 368 -430174687 -541069402 -1627390345 -1027610077
            -1627567059 -286655545 -24698531 -890870528</internalNodes>
          <leafValues>
            -3.4176287055015564e-01 1.8581481277942657e-01</leafValues></_>
        <_>
          <internalNodes>
            0 -1 550 786067206 -362037403 -92275210 -1569128698
            -10750636 -16810162 -754975756 -86311566</internalNodes>
          <leafValues>
            -3.3682644367218018e-01 1.8434032797813416e-01</leafValues></_>
        <_>
          <internalNodes>
            0 -1 393 -1942962828 -1797747524 -1090970699 -50832198
            -1896302863 -167911945 -1893386499 -1413870405</internalNodes>
          <leafValues>
            -2.5808566808700562e-01 2.3372730612754822e-01</leafValues></_>
        <_>
          <internalNodes>
            0 -1 96 -823180705 -290521114 -1132499723 -258539978
            -671097003 -1086367953 1870620657 -8391216</internalNodes>
          <leafValues>
            -2.4156053364276886e-01 2.5301626324653625e-01</leafValues></_>
        <_>
          <internalNodes>
            0 -1 101 -120210694 -1167069460 2142763819 -856834386
            -402659996 -79691849 1827531843 1330640655</internalNodes>
          <leafValues>
            -3.1089574098587036e-01 1.9114854931831360e-01</leafValues></_>
        <_>
          <internalNodes>
            0 -1 242 -705305809 829897237 1884519138 358019970
            1320308174 938812264 -929043781 -1311711798</internalNodes>
          <leafValues>
            -2.7889773249626160e-01 2.2006793320178986e-01</leafValues></_>
        <_>
          <internalNodes>
            0 -1 394 111179828 -1128789891 -1140851201 -221571
            -1078329864 -220694091 -1079853315 -1413871317</internalNodes>
          <leafValues>
            -2.6190286874771118e-01 2.2567379474639893e-01</leafValues></_>
        <_>
          <internalNodes>
            0 -1 292 1894756866 1455384191 -319062852 1954004902
            -687901440 -1005096589 1688691776 545258447</internalNodes>
          <leafValues>
            -4.8536637425422668e-01 1.2378911674022675e-01</leafValues></_>
        <_>
          <internalNodes>
            0 -1 120 640294960 -204987150 -1216348297 -1788940
            -1992748094 -1879903565 -1089177927 -268614347</internalNodes>
          <leafValues>
            -2.8036531805992126e-01 2.1568746864795685e-01</leafValues></_></weakClassifiers></_>
    <!-- stage 7 -->
    <_>
      <maxWeakCount>34</maxWeakCount>
      <stageThreshold>-2.5895261764526367e+00</stageThreshold>
      <weakClassifiers>
        <_>
          <internalNodes>
            0 -1 186 -17409 -2118657 -138958149 -23809 -65 -1 -3167557
            -21845</internalNodes>
          <leafValues>
            -7.5977969169616699e-01 -2.7429651468992233e-02</leafValues></_>
        <_>
          <internalNodes>
            0 -1 451 1078251214 -179240961 -353989121 -46026887
            -237698609 -2301201 -20497 -2098209</internalNodes>
          <leafValues>
            -5.2835077047348022e-01 2.0783539116382599e-01</leafValues></_>
        <_>
          <internalNodes>
            0 -1 141 2106587135 833040643 -141592609 1068443939 -5
            -2359317 -305 1066352559</internalNodes>
          <leafValues>
            -4.2578589916229248e-01 2.5749707221984863e-01</leafValues></_>
        <_>
          <internalNodes>
            0 -1 324 -587670052 -65793 -8462337 -536944641 -537329668
            -67436545 -2555907 -4259841</internalNodes>
          <leafValues>
            -2.9315221309661865e-01 3.4792238473892212e-01</leafValues></_>
        <_>
          <internalNodes>
            0 -1 524 -67108873 -1008205841 1877733040 -108331222
            -536870989 -876085253 1352126464 -776472685</internalNodes>
          <leafValues>
            -2.4934804439544678e-01 3.6022329330444336e-01</leafValues></_>
        <_>
          <internalNodes>
            0 -1 261 -715131182 1566428796 -2099978 1375595208
            2088036274 -44573441 -717176272 -212999954</internalNodes>
          <leafValues>
            -3.0974757671356201e-01 2.7475768327713013e-01</leafValues></_>
        <_>
          <internalNodes>
            0 -1 216 -11075598 -1023473923 1067794207 1337944767
            -877727749 -923574346 -10526965 1257981515</internalNodes>
          <leafValues>
            -2.8978002071380615e-01 2.8179913759231567e-01</leafValues></_>
        <_>
          <internalNodes>
            0 -1 2 -852496469 145680426 -1006667854 -487653872
            1140848639 1276640511 1375719607 1157625335</internalNodes>
          <leafValues>
            -3.5018631815910339e-01 1.9782412052154541e-01</leafValues></_>
        <_>
          <internalNodes>
            0 -1 544 -623069040 -1627616003 -23363593 -1082329601
            -16872788 -33783877 -1426280788 -1364710661</internalNodes>
          <leafValues>
            -2.3195159435272217e-01 2.9461249709129333e-01</leafValues></_>
        <_>
          <internalNodes>
            0 -1 22 -297341726 -445534553 -1091125395 1879010991
            1950414132 2002042855 -67109090 1879000813</internalNodes>
          <leafValues>
            -3.8457617163658142e-01 1.7419487237930298e-01</leafValues></_>
        <_>
          <internalNodes>
            0 -1 536 -1893469392 136376608 -12624432 -16718736
            -1901462787 -1179993133 167354841 -575669767</internalNodes>
          <leafValues>
            -2.9174238443374634e-01 2.1730779111385345e-01</leafValues></_>
        <_>
          <internalNodes>
            0 -1 284 -322516844 -33632577 -51462403 -128543 1174422756
            1336282720 -606315028 -45313</internalNodes>
          <leafValues>
            -2.2536507248878479e-01 2.7676853537559509e-01</leafValues></_>
        <_>
          <internalNodes>
            0 -1 31 -218104209 -95162697 -424492290 1882387146
            1996451413 2136439855 -148931058 -228591897</internalNodes>
          <leafValues>
            -2.4088126420974731e-01 2.5552129745483398e-01</leafValues></_>
        <_>
          <internalNodes>
            0 -1 291 1529804188 -1126483 2108583417 -72741138 -940214337
            -541143045 1912437928 2139571234</internalNodes>
          <leafValues>
            -2.8478860855102539e-01 2.1586675941944122e-01</leafValues></_>
        <_>
          <internalNodes>
            0 -1 435 -1935878928 -570487588 -134521355 -608237739
            -1631667015 -1124073511 216735403 -1346429729</internalNodes>
          <leafValues>
            -2.0780393481254578e-01 2.9253679513931274e-01</leafValues></_>
        <_>
          <internalNodes>
            0 -1 542 -8451051 -1090526661 -470290437 847232943 -8434684
            1968668497 -1426675704 -1570259073</internalNodes>
          <leafValues>
            -2.7781677246093750e-01 2.3151372373104095e-01</leafValues></_>
        <_>
          <internalNodes>
            0 -1 275 2011162507 87531447 -85013950 -168301637 1987030508
            1194844013 -218234882 -671101249</internalNodes>
          <leafValues>
            -2.4811924993991852e-01 2.5388610363006592e-01</leafValues></_>
        <_>
          <internalNodes>
            0 -1 493 -68160041 95917941 -1164706368 821099888 -234947667
            1504623889 -1198656 -772276265</internalNodes>
          <leafValues>
            -2.6111400127410889e-01 2.1334795653820038e-01</leafValues></_>
        <_>
          <internalNodes>
            0 -1 151 -1440576400 -19264792 -1074959361 -1074034748
            -1078947843 -1091043329 -1086996549 -1610677135</internalNodes>
          <leafValues>
            -2.1430566906929016e-01 2.6596787571907043e-01</leafValues></_>
        <_>
          <internalNodes>
            0 -1 434 -38077068 -118161970 -139265 -492304 -2005286983
            -33751361 -1075103752 -1421998917</internalNodes>
          <leafValues>
            -2.0379489660263062e-01 2.7631226181983948e-01</leafValues></_>
        <_>
          <internalNodes>
            0 -1 336 -285216990 245744607 -1361149272 -990125364
            324625522 -478168073 -673782204 -218256717</internalNodes>
          <leafValues>
            -2.8211915493011475e-01 2.0338550209999084e-01</leafValues></_>
        <_>
          <internalNodes>
            0 -1 64 -495194569 -77608402 1086619390 277051634 1078545992
            -543207578 1891105528 -688652293</internalNodes>
          <leafValues>
            -2.5789943337440491e-01 2.1858443319797516e-01</leafValues></_>
        <_>
          <internalNodes>
            0 -1 474 -1287974863 -268484609 2122022911 -285249601
            -17088763 -269091498 -1115832531 -69763</internalNodes>
          <leafValues>
            -2.2753608226776123e-01 2.4085637927055359e-01</leafValues></_>
        <_>
          <internalNodes>
            0 -1 315 -731316996 -55173539 -1092753711 -193411 -265757252
            -71707139 2010540989 -1145372193</internalNodes>
          <leafValues>
            -1.7054648697376251e-01 3.1776025891304016e-01</leafValues></_>
        <_>
          <internalNodes>
            0 -1 487 -1460666624 16318439 -270546156 -1359479298
            1475325864 -1124336775 2000338492 790165942</internalNodes>
          <leafValues>
            -3.2822206616401672e-01 1.6574901342391968e-01</leafValues></_>
        <_>
          <internalNodes>
            0 -1 576 -138543317 -707265921 -555810820 -252053153
            -679479804 1913173862 939523441 1927282174</internalNodes>
          <leafValues>
            -2.9520547389984131e-01 1.7999172210693359e-01</leafValues></_>
        <_>
          <internalNodes>
            0 -1 419 -1057504693 1408706505 -633690271 1270541047
            1970558055 -136881641 -159974401 -45827369</internalNodes>
          <leafValues>
            -2.3856019973754883e-01 2.2441801428794861e-01</leafValues></_>
        <_>
          <internalNodes>
            0 -1 205 -9476566 286471972 -293648878 -714343439 -136501158
            993654327 -1103631110 142506284</internalNodes>
          <leafValues>
            -2.8529831767082214e-01 1.9136795401573181e-01</leafValues></_>
        <_>
          <internalNodes>
            0 -1 123 1447165905 -967856276 -1068309411 1086390013
            1937504850 -545784379 856731985 -808472981</internalNodes>
          <leafValues>
            -2.3828031122684479e-01 2.3722389340400696e-01</leafValues></_>
        <_>
          <internalNodes>
            0 -1 439 131769429 -1710424134 -88083209 -1078034946
            -470374667 -1209009193 -1086347779 -1409377860</internalNodes>
          <leafValues>
            -2.2545364499092102e-01 2.3201090097427368e-01</leafValues></_>
        <_>
          <internalNodes>
            0 -1 142 896729224 -69350178 1570743483 691839650 1062635437
            -35655685 -545291392 423660170</internalNodes>
          <leafValues>
            -3.5246229171752930e-01 1.4798344671726227e-01</leafValues></_>
        <_>
          <internalNodes>
            0 -1 559 -455087581 -1373450566 -222298576 -1014198670
            -276841029 -1983447571 1157059797 1166013670</internalNodes>
          <leafValues>
            -3.1058862805366516e-01 1.7113550007343292e-01</leafValues></_>
        <_>
          <internalNodes>
            0 -1 129 -224659280 -51583252 218892631 1181218798
            -538837856 -522940156 2011782916 1141371908</internalNodes>
          <leafValues>
            -4.0093085169792175e-01 1.2426149845123291e-01</leafValues></_>
        <_>
          <internalNodes>
            0 -1 573 -1476452521 600731448 2062547554 -1570846913
            -1067177 -1514162241 1006496260 -224739586</internalNodes>
          <leafValues>
            -2.7943581342697144e-01 1.8278464674949646e-01</leafValues></_></weakClassifiers></_>
    <!-- stage 8 -->
    <_>
      <maxWeakCount>36</maxWeakCount>
      <stageThreshold>-2.5301029682159424e+00</stageThreshold>
      <weakClassifiers>
        <_>
          <internalNodes>
            0 -1 293 -16777217 -2049 -2097665 -8225 -16781329 -17
            -16781329 -352653617</internalNodes>
          <leafValues>
            -6.7488688230514526e-01 3.4618481993675232e-02</leafValues></_>
        <_>
          <internalNodes>
            0 -1 158 -1596185801 -33618057 601826107 -2151681
            -1428246593 -268697601 -1426740293 -3168017</internalNodes>
          <leafValues>
            -4.8258969187736511e-01 2.3209685087203979e-01</leafValues></_>
        <_>
          <internalNodes>
            0 -1 60 -590081 -22802 2097070334 -81174 -20186113 -2136329
            -722344705 -527273</internalNodes>
          <leafValues>
            -2.5648614764213562e-01 4.0871572494506836e-01</leafValues></_>
        <_>
          <internalNodes>
            0 -1 459 -1 -536871465 -67120368 833877875 -69337153
            -374354005 -1094 -67371013</internalNodes>
          <leafValues>
            -1.7380972206592560e-01 4.8527720570564270e-01</leafValues></_>
        <_>
          <internalNodes>
            0 -1 81 -184550450 -1026625554 -277876785 -842006545 -2236
            1431568213 -3171505 -548405249</internalNodes>
          <leafValues>
            -3.3760827779769897e-01 2.4223229289054871e-01</leafValues></_>
        <_>
          <internalNodes>
            0 -1 183 -838992065 -318963713 -1343312339 -268447795
            -178913473 -10223619 740762886 754974719</internalNodes>
          <leafValues>
            -2.9714089632034302e-01 2.5261375308036804e-01</leafValues></_>
        <_>
          <internalNodes>
            0 -1 363 -553682947 -2326787 -33587201 -4554753 -3276803
            -131073 -1074003975 -1074254800</internalNodes>
          <leafValues>
            -2.3221564292907715e-01 3.0100223422050476e-01</leafValues></_>
        <_>
          <internalNodes>
            0 -1 374 -268456410 -1428165057 -288632914 -1526747410
            2002727271 -1900841963 2004301056 -218634493</internalNodes>
          <leafValues>
            -3.4599199891090393e-01 2.1040418744087219e-01</leafValues></_>
        <_>
          <internalNodes>
            0 -1 16 -320274959 -378060598 716106511 786638751 -786953
            -57 -1375240385 -32769</internalNodes>
          <leafValues>
            -2.4113044142723083e-01 2.6546522974967957e-01</leafValues></_>
        <_>
          <internalNodes>
            0 -1 422 -796924673 -711901189 -1242565250 -1849622874
            1079263469 -1250826604 -385041718 -2130654456</internalNodes>
          <leafValues>
            -2.5816518068313599e-01 2.4351520836353302e-01</leafValues></_>
        <_>
          <internalNodes>
            0 -1 556 -302002205 -1490114526 -1946197584 -712902702
            -767577093 -811799809 1440699857 -840957954</internalNodes>
          <leafValues>
            -2.2784347832202911e-01 2.6950556039810181e-01</leafValues></_>
        <_>
          <internalNodes>
            0 -1 354 -57082512 -23323562 -2051 -33810441 -298011656
            -2294090 -1348845575 -1357379528</internalNodes>
          <leafValues>
            -2.5204947590827942e-01 2.3534886538982391e-01</leafValues></_>
        <_>
          <internalNodes>
            0 -1 566 -1392604140 -1661068292 -1094721665 -1712505729
            -1193367416 -553652558 -1191527764 -1430585857</internalNodes>
          <leafValues>
            -2.4192056059837341e-01 2.4608978629112244e-01</leafValues></_>
        <_>
          <internalNodes>
            0 -1 27 -16794257 1916257135 -1428357352 544394754 -34376427
            -311039149 -579973616 -260053161</internalNodes>
          <leafValues>
            -2.6144808530807495e-01 2.2473977506160736e-01</leafValues></_>
        <_>
          <internalNodes>
            0 -1 357 506484912 -895236 -147969 -34977 -1162154000
            -1359282214 -4259841 -1077986629</internalNodes>
          <leafValues>
            -1.9320836663246155e-01 2.9333949089050293e-01</leafValues></_>
        <_>
          <internalNodes>
            0 -1 596 -545306865 -363765514 -1159728141 1392374783
            -16837040 -58771626 -130032014 -218628101</internalNodes>
          <leafValues>
            -2.3813346028327942e-01 2.3755680024623871e-01</leafValues></_>
        <_>
          <internalNodes>
            0 -1 263 2138430194 2112745204 -423303440 1556735613
            -1336873198 -22680453 709142434 1104126091</internalNodes>
          <leafValues>
            -2.9550889134407043e-01 1.9206091761589050e-01</leafValues></_>
        <_>
          <internalNodes>
            0 -1 167 246316855 -16777218 -1614815297 -16844806 267382581
            -1411399745 -83929643 -536873820</internalNodes>
          <leafValues>
            -2.3145143687725067e-01 2.4684198200702667e-01</leafValues></_>
        <_>
          <internalNodes>
            0 -1 391 204487764 -1900503052 955743227 -1078108641
            -1100349707 -1426174468 -1347974149 -1346689093</internalNodes>
          <leafValues>
            -2.1046459674835205e-01 2.5499305129051208e-01</leafValues></_>
        <_>
          <internalNodes>
            0 -1 365 172762897 -1362216329 1006497663 749629438
            2147475217 -5276353 -571490495 -541436527</internalNodes>
          <leafValues>
            -3.0450871586799622e-01 1.7869932949542999e-01</leafValues></_>
        <_>
          <internalNodes>
            0 -1 174 -221975474 -18149650 -18690550 -224186785
            1179403268 2059797588 -261826996 -113815689</internalNodes>
          <leafValues>
            -3.1093680858612061e-01 1.7198522388935089e-01</leafValues></_>
        <_>
          <internalNodes>
            0 -1 373 1945890480 438943675 2130638336 1001516064
            514133134 738197467 184880972 1071993408</internalNodes>
          <leafValues>
            -3.9079573750495911e-01 1.3721442222595215e-01</leafValues></_>
        <_>
          <internalNodes>
            0 -1 108 -2010221133 -1431657478 -336594441 -756976
            -536871439 -1880693249 1056958455 -591415107</internalNodes>
          <leafValues>
            -2.2821013629436493e-01 2.3078593611717224e-01</leafValues></_>
        <_>
          <internalNodes>
            0 -1 555 -1049949 254443463 -201331728 -405930144
            -1476412432 -1969245362 -67782704 -1694761509</internalNodes>
          <leafValues>
            -1.9461648166179657e-01 2.6029190421104431e-01</leafValues></_>
        <_>
          <internalNodes>
            0 -1 209 34533152 -257755776 1861705214 -92340238 1601171233
            -331035739 225903940 -590588464</internalNodes>
          <leafValues>
            -3.4575423598289490e-01 1.5144860744476318e-01</leafValues></_>
        <_>
          <internalNodes>
            0 -1 200 952631572 1038105872 1993163967 -638195203
            981222832 -822904367 -1200144449 545263661</internalNodes>
          <leafValues>
            -3.5874894261360168e-01 1.3904951512813568e-01</leafValues></_>
        <_>
          <internalNodes>
            0 -1 381 -331100630 -1058869313 -497310208 -253825818
            -434739387 1080112439 -1221076394 -203423748</internalNodes>
          <leafValues>
            -2.7096611261367798e-01 1.8209414184093475e-01</leafValues></_>
        <_>
          <internalNodes>
            0 -1 3 -2085638353 -1968296282 -1210155141 -1725038304
            122664795 1094839805 -436243178 1475313259</internalNodes>
          <leafValues>
            -2.6961231231689453e-01 1.8573065102100372e-01</leafValues></_>
        <_>
          <internalNodes>
            0 -1 492 -18156928 2048958000 -23406672 -1741619900 -2229060
            -398698463 2127343288 -96472148</internalNodes>
          <leafValues>
            -2.3683583736419678e-01 2.1235354244709015e-01</leafValues></_>
        <_>
          <internalNodes>
            0 -1 472 -337644174 774569906 -146805387 -1074631108 -266603
            -1907622993 1442800117 -858784583</internalNodes>
          <leafValues>
            -2.4347960948944092e-01 2.0351336896419525e-01</leafValues></_>
        <_>
          <internalNodes>
            0 -1 489 1660094199 1509165847 -496578793 -71008281
            1892688852 -567457 -525414 -69009842</internalNodes>
          <leafValues>
            -1.9369873404502869e-01 2.5745901465415955e-01</leafValues></_>
        <_>
          <internalNodes>
            0 -1 306 -299908177 1068498622 -1806876 -45945184 20253439
            821723126 -1905793794 -117979513</internalNodes>
          <leafValues>
            -2.1455131471157074e-01 2.2750365734100342e-01</leafValues></_>
        <_>
          <internalNodes>
            0 -1 105 -25210209 -12378257 -453315941 387121147
            -1744933811 -621377737 -29034244 -83698817</internalNodes>
          <leafValues>
            -1.8111562728881836e-01 2.7180415391921997e-01</leafValues></_>
        <_>
          <internalNodes>
            0 -1 581 -151263222 786382847 -1359247859 309456886
            1849143049 151242363 -1254194932 1916006141</internalNodes>
          <leafValues>
            -2.8787204623222351e-01 1.7148321866989136e-01</leafValues></_>
        <_>
          <internalNodes>
            0 -1 91 1900335330 557117350 -37774347 799518688 1996820724
            1068857014 1308516066 267351259</internalNodes>
          <leafValues>
            -3.4423521161079407e-01 1.4171415567398071e-01</leafValues></_>
        <_>
          <internalNodes>
            0 -1 318 -3212044 -830994260 -537952779 -1360003847
            -1115808911 -1278921479 2038308099 731451958</internalNodes>
          <leafValues>
            -3.0734193325042725e-01 1.5735366940498352e-01</leafValues></_></weakClassifiers></_>
    <!-- stage 9 -->
    <_>
      <maxWeakCount>42</maxWeakCount>
      <stageThreshold>-2.6469802856445312e+00</stageThreshold>
      <weakClassifiers>
        <_>
          <internalNodes>
            0 -1 118 -201347137 -8409281 -1277189441 -4216149 -268587073
            -8931457 -16798037 -20689</internalNodes>
          <leafValues>
            -7.2096151113510132e-01 -1.5548513829708099e-01</leafValues></_>
        <_>
          <internalNodes>
            0 -1 454 -572522548 -589431844 -36 -34078721 -33554433
            -33619969 -67109894 -67240961</internalNodes>
          <leafValues>
            -3.8337945938110352e-01 2.7244821190834045e-01</leafValues></_>
        <_>
          <internalNodes>
            0 -1 150 -1441793 857208215 -268441669 1000075547 2145381807
            -33 -283201878 1069268411</internalNodes>
          <leafValues>
            -3.2270807027816772e-01 2.8696963191032410e-01</leafValues></_>
        <_>
          <internalNodes>
            0 -1 82 -16777473 -1057 -251660033 -218107137 -16781585
            -10498433 -150995201 -201326593</internalNodes>
          <leafValues>
            -2.0456185936927795e-01 4.1631343960762024e-01</leafValues></_>
        <_>
          <internalNodes>
            0 -1 476 -5313 -33 -421527553 -2097153 -1073750767 -2359457
            -624558491 -4587521</internalNodes>
          <leafValues>
            -2.0503458380699158e-01 3.4186661243438721e-01</leafValues></_>
        <_>
          <internalNodes>
            0 -1 311 -33619970 -84741170 -4394948 -13583814 2129117183
            545273275 2098544404 1058154242</internalNodes>
          <leafValues>
            -2.9864880442619324e-01 2.4955472350120544e-01</leafValues></_>
        <_>
          <internalNodes>
            0 -1 398 -361955468 -16853252 -134610953 -1074874371
            -1342964267 -4196417 -549453825 -67379233</internalNodes>
          <leafValues>
            -2.0470292866230011e-01 3.2077971100807190e-01</leafValues></_>
        <_>
          <internalNodes>
            0 -1 545 -555754492 350190293 -318780276 -1932001317
            -72360312 -1140981799 -1430274936 -1431569409</internalNodes>
          <leafValues>
            -2.6241132616996765e-01 2.3731422424316406e-01</leafValues></_>
        <_>
          <internalNodes>
            0 -1 154 -254674159 -908067329 -799748848 -1059734533
            -102649038 -24398439 -268959881 -7340177</internalNodes>
          <leafValues>
            -2.2213909029960632e-01 2.7017185091972351e-01</leafValues></_>
        <_>
          <internalNodes>
            0 -1 321 69208112 2075801461 523698039 1064901747
            -1146437640 -1073801217 732583594 993728315</internalNodes>
          <leafValues>
            -3.2576310634613037e-01 1.8420107662677765e-01</leafValues></_>
        <_>
          <internalNodes>
            0 -1 56 -620757137 -362807505 -118292622 -526193118
            -681575571 1965027191 -1141637372 -134744218</internalNodes>
          <leafValues>
            -2.8606617450714111e-01 2.1025864779949188e-01</leafValues></_>
        <_>
          <internalNodes>
            0 -1 557 -155190349 -1409090942 -604013200 -546646444
            -1049181 -1899167841 1173878197 -570436107</internalNodes>
          <leafValues>
            -2.2264583408832550e-01 2.6065889000892639e-01</leafValues></_>
        <_>
          <internalNodes>
            0 -1 319 -621093648 -389392 -4211201 -99745 -67567688
            -71958531 -1187840261 -1883629254</internalNodes>
          <leafValues>
            -1.8939176201820374e-01 3.0401727557182312e-01</leafValues></_>
        <_>
          <internalNodes>
            0 -1 378 1736173359 421522639 -18088253 964157165 1148995438
            2128309567 -229968161 -8000209</internalNodes>
          <leafValues>
            -2.7082505822181702e-01 2.0615492761135101e-01</leafValues></_>
        <_>
          <internalNodes>
            0 -1 222 -2001576647 -1163198467 -1077936193 -6754952
            -67642383 -341853761 -268706883 -1363349519</internalNodes>
          <leafValues>
            -2.9262340068817139e-01 1.8082089722156525e-01</leafValues></_>
        <_>
          <internalNodes>
            0 -1 531 -100663421 -883949657 -10092704 -1462083666
            -70262903 1223622351 2012737920 -704643073</internalNodes>
          <leafValues>
            -2.9491320252418518e-01 1.6566365957260132e-01</leafValues></_>
        <_>
          <internalNodes>
            0 -1 433 -634322956 -55263248 -17367555 -543421251
            -1212482083 -199183 -1078546433 -1078260677</internalNodes>
          <leafValues>
            -1.6728067398071289e-01 3.0646282434463501e-01</leafValues></_>
        <_>
          <internalNodes>
            0 -1 176 -18914769 -67154185 -119609793 1921142783 -4295680
            -2154748 -94965028 -81593474</internalNodes>
          <leafValues>
            -2.0994116365909576e-01 2.4819788336753845e-01</leafValues></_>
        <_>
          <internalNodes>
            0 -1 14 -288888149 44739310 -548417738 1326057608 1207919963
            1080555467 -135431310 -134746173</internalNodes>
          <leafValues>
            -2.3631902039051056e-01 2.1849438548088074e-01</leafValues></_>
        <_>
          <internalNodes>
            0 -1 543 -21081007 -38118665 -58755591 -34324611 -13063788
            -2441473 -18957636 -1364575317</internalNodes>
          <leafValues>
            -1.9542871415615082e-01 2.7265015244483948e-01</leafValues></_>
        <_>
          <internalNodes>
            0 -1 239 1886826372 896882551 -432881102 1434974561 29018061
            695408229 -1066939736 1095236642</internalNodes>
          <leafValues>
            -3.0877870321273804e-01 1.6169571876525879e-01</leafValues></_>
        <_>
          <internalNodes>
            0 -1 247 855847168 -2082810396 2077196055 -168313652
            846271153 -1447594055 632241425 -843337500</internalNodes>
          <leafValues>
            -2.9083830118179321e-01 1.7841376364231110e-01</leafValues></_>
        <_>
          <internalNodes>
            0 -1 610 -3152125 -1033379953 -187998496 -454295580
            1367037443 1635515726 1967604484 1475786739</internalNodes>
          <leafValues>
            -3.2792523503303528e-01 1.4990763366222382e-01</leafValues></_>
        <_>
          <internalNodes>
            0 -1 195 -392167408 -1156281448 -1074214915 -1644427179
            -1347174479 -1091756875 -1394629924 705177653</internalNodes>
          <leafValues>
            -3.2224971055984497e-01 1.4906316995620728e-01</leafValues></_>
        <_>
          <internalNodes>
            0 -1 428 -150995538 923134720 -409624 -1280704857
            -1898076280 -1475889399 -120598645 -1987064433</internalNodes>
          <leafValues>
            -1.8399509787559509e-01 2.6573228836059570e-01</leafValues></_>
        <_>
          <internalNodes>
            0 -1 289 -1370739691 -352569665 -1349697539 -1360331524
            1067408720 -58404 -19058924 -71289120</internalNodes>
          <leafValues>
            -2.9791128635406494e-01 1.6055630147457123e-01</leafValues></_>
        <_>
          <internalNodes>
            0 -1 546 707822736 -1140953252 1013694077 -1080049731
            -696741748 -8426121 -1165976616 -1348936481</internalNodes>
          <leafValues>
            -2.0818001031875610e-01 2.2776557505130768e-01</leafValues></_>
        <_>
          <internalNodes>
            0 -1 305 -245373009 -1817152595 -956915707 -974785625
            -264012307 1976870697 -335762449 -403970035</internalNodes>
          <leafValues>
            -1.5745337307453156e-01 3.0156335234642029e-01</leafValues></_>
        <_>
          <internalNodes>
            0 -1 432 -813701519 1076424659 1333664434 -852976902
            -536923157 419644675 301551808 -617622029</internalNodes>
          <leafValues>
            -2.2052374482154846e-01 2.0845086872577667e-01</leafValues></_>
        <_>
          <internalNodes>
            0 -1 397 213188080 -558198824 -1100349443 -1145430594
            724475862 -1445105667 1073430523 -1410649938</internalNodes>
          <leafValues>
            -2.0142725110054016e-01 2.4037720263004303e-01</leafValues></_>
        <_>
          <internalNodes>
            0 -1 50 -85918608 -258232706 778046213 576598013 -76040944
            -693610756 -288927929 -57409</internalNodes>
          <leafValues>
            -3.2074797153472900e-01 1.5418918430805206e-01</leafValues></_>
        <_>
          <internalNodes>
            0 -1 402 -1366833755 -54792311 -1343225889 -1581065
            -118491995 -1 -369187651 -353929979</internalNodes>
          <leafValues>
            -2.0699109137058258e-01 2.2382637858390808e-01</leafValues></_>
        <_>
          <internalNodes>
            0 -1 334 -285307101 -1063692171 -26226801 1425094223
            -1034479339 -260869005 -97260025 -354686878</internalNodes>
          <leafValues>
            -2.2572498023509979e-01 2.0496350526809692e-01</leafValues></_>
        <_>
          <internalNodes>
            0 -1 248 -171198918 808517351 179201898 -383157665
            -539901592 1567915259 894820170 1263356767</internalNodes>
          <leafValues>
            -2.4033506214618683e-01 1.8703849613666534e-01</leafValues></_>
        <_>
          <internalNodes>
            0 -1 331 -290551549 -865206953 -26214581 -289483329
            -575947001 -620906505 -805372149 -289901025</internalNodes>
          <leafValues>
            -2.2323198616504669e-01 2.0748364925384521e-01</leafValues></_>
        <_>
          <internalNodes>
            0 -1 238 659483531 288982810 -1009734456 453791480 927615178
            96521294 -170867508 543216487</internalNodes>
          <leafValues>
            -3.0414605140686035e-01 1.4697432518005371e-01</leafValues></_>
        <_>
          <internalNodes>
            0 -1 424 1087865542 -792754481 -662914346 419397554
            1886863605 -1326100155 -1309169156 -2147111129</internalNodes>
          <leafValues>
            -2.8131660819053650e-01 1.6503912210464478e-01</leafValues></_>
        <_>
          <internalNodes>
            0 -1 473 -1147946251 -2017550344 -1287652139 -43188290
            -1214269769 -541081858 96337405 -1884304132</internalNodes>
          <leafValues>
            -1.7895407974720001e-01 2.5818055868148804e-01</leafValues></_>
        <_>
          <internalNodes>
            0 -1 435 -923216716 -60259113 -671350795 -68172291
            -1130365511 -1174667297 -1379938849 -1073800993</internalNodes>
          <leafValues>
            -1.4223356544971466e-01 3.1853035092353821e-01</leafValues></_>
        <_>
          <internalNodes>
            0 -1 62 -151051665 -360710173 -288376608 -258278786
            1610575110 1377812007 869722432 2012872534</internalNodes>
          <leafValues>
            -2.7574846148490906e-01 1.6626952588558197e-01</leafValues></_>
        <_>
          <internalNodes>
            0 -1 160 1475305990 297074088 -34248008 -575276057
            1472677877 -1107297603 2113659108 -1914912810</internalNodes>
          <leafValues>
            -2.1874129772186279e-01 2.0732052624225616e-01</leafValues></_>
        <_>
          <internalNodes>
            0 -1 561 -92569081 -110100613 -765749522 -520094857 -5448188
            1566537076 -294673720 -158224449</internalNodes>
          <leafValues>
            -2.1659272909164429e-01 2.1756412088871002e-01</leafValues></_></weakClassifiers></_>
    <!-- stage 10 -->
    <_>
      <maxWeakCount>43</maxWeakCount>
      <stageThreshold>-2.5388369560241699e+00</stageThreshold>
      <weakClassifiers>
        <_>
          <internalNodes>
            0 -1 569 -134217933 -142606401 -4196427 -134217729 -65 -4097
            -33554497 -1</internalNodes>
          <leafValues>
            -6.4883941411972046e-01 -1.0311284102499485e-02</leafValues></_>
        <_>
          <internalNodes>
            0 -1 114 -655393 934388487 -1 800063023 -41729 -4465157
            -285226833 801112047</internalNodes>
          <leafValues>
            -4.6700525283813477e-01 1.8638907372951508e-01</leafValues></_>
        <_>
          <internalNodes>
            0 -1 61 -2689281 -2228515 -488578818 -335618 -201853185
            -531457 -263130369 -2049</internalNodes>
          <leafValues>
            -2.1156448125839233e-01 4.1316607594490051e-01</leafValues></_>
        <_>
          <internalNodes>
            0 -1 488 1075842303 2069368573 717148159 586567405
            -134920193 -299777 -16777217 -593937</internalNodes>
          <leafValues>
            -2.8015068173408508e-01 2.7390241622924805e-01</leafValues></_>
        <_>
          <internalNodes>
            0 -1 237 -186329868 -31283 1145308279 -536935057 595636159
            -1157726281 871569343 -269504593</internalNodes>
          <leafValues>
            -3.4739130735397339e-01 1.9080074131488800e-01</leafValues></_>
        <_>
          <internalNodes>
            0 -1 471 -2061 -928580870 -171977263 -573572876 -1629492245
            -1933585445 1440175377 -707267131</internalNodes>
          <leafValues>
            -2.5832667946815491e-01 2.6906687021255493e-01</leafValues></_>
        <_>
          <internalNodes>
            0 -1 258 -151105825 -553724009 -927307009 1915903967
            -592820148 -16876419 -318972166 -96796930</internalNodes>
          <leafValues>
            -2.1560001373291016e-01 2.9386457800865173e-01</leafValues></_>
        <_>
          <internalNodes>
            0 -1 69 -72679517 -828201302 -545261645 -1380830 -270008345
            1316486607 -167772169 -536912265</internalNodes>
          <leafValues>
            -2.3315261304378510e-01 2.5656083226203918e-01</leafValues></_>
        <_>
          <internalNodes>
            0 -1 394 -138609668 -95236 -67239945 -2138499 -1086474312
            -2310666 -1079263233 -1146419142</internalNodes>
          <leafValues>
            -1.6530081629753113e-01 3.3927071094512939e-01</leafValues></_>
        <_>
          <internalNodes>
            0 -1 340 -268442077 -1062738042 -1023959008 -990384689
            -697096377 68615525 -709762267 -706754914</internalNodes>
          <leafValues>
            -2.5931474566459656e-01 2.2304958105087280e-01</leafValues></_>
        <_>
          <internalNodes>
            0 -1 350 -733675536 -562294860 -555770369 -258561
            -1095189008 -18022417 -1079191623 -1346691697</internalNodes>
          <leafValues>
            -2.0366971194744110e-01 2.7005884051322937e-01</leafValues></_>
        <_>
          <internalNodes>
            0 -1 477 -28064009 -67641905 1845493759 -16826573 -318853996
            -1096810627 -1459843904 -1392705539</internalNodes>
          <leafValues>
            -2.0271982252597809e-01 2.6645958423614502e-01</leafValues></_>
        <_>
          <internalNodes>
            0 -1 103 -152572210 -43555201 1962599146 -222375202
            1146047813 1732729160 -800828690 -138412033</internalNodes>
          <leafValues>
            -2.7510038018226624e-01 1.8985396623611450e-01</leafValues></_>
        <_>
          <internalNodes>
            0 -1 494 -134230069 1154444651 -312476416 -589965768
            -1632651636 76339677 -453201024 80737226</internalNodes>
          <leafValues>
            -3.1781667470932007e-01 1.5530751645565033e-01</leafValues></_>
        <_>
          <internalNodes>
            0 -1 445 -1432353488 -554822298 -302123009 -539204103
            -1372295244 -1108419585 -1079760932 -1929636395</internalNodes>
          <leafValues>
            -3.0330836772918701e-01 1.6224643588066101e-01</leafValues></_>
        <_>
          <internalNodes>
            0 -1 273 1941565353 1965548579 -153292576 -168169256
            1143342765 349352687 1358874877 -503463681</internalNodes>
          <leafValues>
            -2.6101860404014587e-01 1.8601700663566589e-01</leafValues></_>
        <_>
          <internalNodes>
            0 -1 395 -50701072 -17035523 -8321 -567307 -1078280195
            -312065 1073739263 -1074059009</internalNodes>
          <leafValues>
            -1.6349868476390839e-01 3.0483582615852356e-01</leafValues></_>
        <_>
          <internalNodes>
            0 -1 145 -1930139339 -325163521 -293796347 -823245809
            -87361741 -205586565 -1232718032 -335546881</internalNodes>
          <leafValues>
            -2.4124510586261749e-01 2.0491003990173340e-01</leafValues></_>
        <_>
          <internalNodes>
            0 -1 572 239041045 -2073233473 -100665578 821730779
            -134223083 -620771330 -1207959852 -222633988</internalNodes>
          <leafValues>
            -2.7191212773323059e-01 1.7167429625988007e-01</leafValues></_>
        <_>
          <internalNodes>
            0 -1 1 -274018329 -1003819030 -1075403 -956923934 -419957793
            134205171 1971115939 1476391413</internalNodes>
          <leafValues>
            -2.7911835908889771e-01 1.6041404008865356e-01</leafValues></_>
        <_>
          <internalNodes>
            0 -1 314 -201271695 -504483 -67600393 -1281548491 -19909423
            -1082246019 -270483461 -1347716801</internalNodes>
          <leafValues>
            -1.5172488987445831e-01 2.9909574985504150e-01</leafValues></_>
        <_>
          <internalNodes>
            0 -1 602 -553680381 -1459695938 -1508136262 1122462458
            -698653180 1248219775 1822143680 -738197761</internalNodes>
          <leafValues>
            -2.3887209594249725e-01 1.8694749474525452e-01</leafValues></_>
        <_>
          <internalNodes>
            0 -1 437 205184116 -1776245614 -546443319 -1627849356
            426864061 -1230602255 765949439 -1409337089</internalNodes>
          <leafValues>
            -2.2606222331523895e-01 1.9852963089942932e-01</leafValues></_>
        <_>
          <internalNodes>
            0 -1 39 -1061373 -1226110033 851622518 268481279 -2983404
            1594575186 -199492380 -195824313</internalNodes>
          <leafValues>
            -2.8455647826194763e-01 1.6745813190937042e-01</leafValues></_>
        <_>
          <internalNodes>
            0 -1 149 1432679748 -1055603424 -616678981 -139214364
            1347810913 -537133593 -843188883 178775435</internalNodes>
          <leafValues>
            -3.3314839005470276e-01 1.3763171434402466e-01</leafValues></_>
        <_>
          <internalNodes>
            0 -1 565 -658991087 -1736614403 -381976681 -1846839559
            -815992 -202396292 -1291916552 -1431638341</internalNodes>
          <leafValues>
            -1.7755797505378723e-01 2.4988873302936554e-01</leafValues></_>
        <_>
          <internalNodes>
            0 -1 223 -1367366095 -393328744 1840959485 -1346606234
            -1357431947 -1090537797 -1082155451 -1159143948</internalNodes>
          <leafValues>
            -2.5280171632766724e-01 1.8415184319019318e-01</leafValues></_>
        <_>
          <internalNodes>
            0 -1 420 -656162298 -655372442 1791798826 -529080353
            -32016619 -1518962171 -109985864 -249430977</internalNodes>
          <leafValues>
            -2.3738957941532135e-01 1.9205406308174133e-01</leafValues></_>
        <_>
          <internalNodes>
            0 -1 499 -33567829 -1743993046 909071472 1386474128
            -1090576757 1480523419 337076305 1083301615</internalNodes>
          <leafValues>
            -2.7176231145858765e-01 1.5701581537723541e-01</leafValues></_>
        <_>
          <internalNodes>
            0 -1 272 2076166029 299448113 2135813872 390594551
            -671265842 1026905519 -134521636 -113784478</internalNodes>
          <leafValues>
            -1.9377939403057098e-01 2.2492855787277222e-01</leafValues></_>
        <_>
          <internalNodes>
            0 -1 386 -773361814 1442168627 -1384120386 -571474113
            -240782891 -1785883371 -1409291847 -1994405477</internalNodes>
          <leafValues>
            -1.5956667065620422e-01 2.7833622694015503e-01</leafValues></_>
        <_>
          <internalNodes>
            0 -1 269 -662117116 -1944281707 -165155 361512911 -632770584
            -33851937 -68513842 -1439012773</internalNodes>
          <leafValues>
            -2.1682552993297577e-01 2.0178900659084320e-01</leafValues></_>
        <_>
          <internalNodes>
            0 -1 414 211610318 -1695843592 1861736418 -3198 2011581439
            -1124196642 -25956369 -11252893</internalNodes>
          <leafValues>
            -1.7834413051605225e-01 2.4292303621768951e-01</leafValues></_>
        <_>
          <internalNodes>
            0 -1 98 -67698830 -51856636 -1347518491 -296824849 -33615884
            -252512172 -1529503901 1197459227</internalNodes>
          <leafValues>
            -2.8385075926780701e-01 1.5502277016639709e-01</leafValues></_>
        <_>
          <internalNodes>
            0 -1 165 739116324 -30496076 384745459 -23176898 179600757
            -1241516361 -1906355663 -51372908</internalNodes>
          <leafValues>
            -3.4140616655349731e-01 1.2843675911426544e-01</leafValues></_>
        <_>
          <internalNodes>
            0 -1 281 1438567650 -21606534 2143726654 -545377102
            535907582 -1330355818 1610055116 2138258187</internalNodes>
          <leafValues>
            -2.1694479882717133e-01 2.0021206140518188e-01</leafValues></_>
        <_>
          <internalNodes>
            0 -1 595 -287355001 -1430520838 -606111175 2124327894
            -270023122 -1939497985 1372422612 1426052079</internalNodes>
          <leafValues>
            -2.6491138339042664e-01 1.6992953419685364e-01</leafValues></_>
        <_>
          <internalNodes>
            0 -1 24 -855642521 1626275519 -527472422 549609466
            -150329546 39786439 777406294 1149214312</internalNodes>
          <leafValues>
            -3.4434133768081665e-01 1.3013128936290741e-01</leafValues></_>
        <_>
          <internalNodes>
            0 -1 330 503979008 1055795596 2147229661 -1639422280
            -9493376 -45515809 757613696 -26464000</internalNodes>
          <leafValues>
            -4.1136834025382996e-01 1.0076710581779480e-01</leafValues></_>
        <_>
          <internalNodes>
            0 -1 355 104346740 783429117 -65 -2097275204 -1632421867
            -1212220937 2062423921 237901622</internalNodes>
          <leafValues>
            -4.7840684652328491e-01 8.4515161812305450e-02</leafValues></_>
        <_>
          <internalNodes>
            0 -1 518 1753872 183693231 -1375733769 -1528823832
            -1879920839 -697344769 1065313819 787659670</internalNodes>
          <leafValues>
            -3.4009733796119690e-01 1.1730033159255981e-01</leafValues></_>
        <_>
          <internalNodes>
            0 -1 371 -2132664281 -1933662840 -27300345 -1061190262
            1409353266 1287770820 -227298554 -389032186</internalNodes>
          <leafValues>
            -2.8326106071472168e-01 1.4564959704875946e-01</leafValues></_>
        <_>
          <internalNodes>
            0 -1 316 -923601040 -1129254917 -24461607 -442007937
            999982096 -1216899652 -1078640895 1068046643</internalNodes>
          <leafValues>
            -2.7075278759002686e-01 1.5072073042392731e-01</leafValues></_></weakClassifiers></_>
    <!-- stage 11 -->
    <_>
      <maxWeakCount>47</maxWeakCount>
      <stageThreshold>-2.4875326156616211e+00</stageThreshold>
      <weakClassifiers>
        <_>
          <internalNodes>
            0 -1 144 -148481 -147971 -152833 -268457219 -1180673 -393217
            -67126597 -21761</internalNodes>
          <leafValues>
            -6.9104474782943726e-01 -1.5708811581134796e-01</leafValues></_>
        <_>
          <internalNodes>
            0 -1 163 1963063168 -1214121995 -4341939 -3329 -183173140
            -985107 -136972884 -573717092</internalNodes>
          <leafValues>
            -4.0850728750228882e-01 1.7401990294456482e-01</leafValues></_>
        <_>
          <internalNodes>
            0 -1 450 1079048910 1079268572 -1569527810 1366645205
            -804983556 -10519149 -78381077 -68684833</internalNodes>
          <leafValues>
            -4.0398937463760376e-01 1.9139824807643890e-01</leafValues></_>
        <_>
          <internalNodes>
            0 -1 495 -14484228 -13568528 -39846403 -571092652 789772541
            -806225947 -1100022529 -10787</internalNodes>
          <leafValues>
            -2.7621251344680786e-01 2.6130017638206482e-01</leafValues></_>
        <_>
          <internalNodes>
            0 -1 541 -8321 -1 -4194309 -144704513 -263356 2136997759
            -1109401744 -1</internalNodes>
          <leafValues>
            -1.9422711431980133e-01 3.2758837938308716e-01</leafValues></_>
        <_>
          <internalNodes>
            0 -1 332 -287331417 -67108881 -272650305 -738201609
            -16799825 -2097217 -360714401 -353376761</internalNodes>
          <leafValues>
            -1.6267570853233337e-01 4.0096291899681091e-01</leafValues></_>
        <_>
          <internalNodes>
            0 -1 134 -16856502 -218150321 -254090497 -219942281
            -866303924 -855947069 -53883683 -12545</internalNodes>
          <leafValues>
            -2.5678747892379761e-01 2.4796314537525177e-01</leafValues></_>
        <_>
          <internalNodes>
            0 -1 6 -353376630 573500078 -10748 -1560344064 1743644471
            1893432931 -746719483 -100708769</internalNodes>
          <leafValues>
            -3.1158310174942017e-01 1.6769629716873169e-01</leafValues></_>
        <_>
          <internalNodes>
            0 -1 430 67114064 384836756 -44115075 -4358339 767272881
            -1344610375 799685823 -1077990405</internalNodes>
          <leafValues>
            -2.1417483687400818e-01 2.5641655921936035e-01</leafValues></_>
        <_>
          <internalNodes>
            0 -1 380 1884804318 -715948185 -827404556 -270010124
            -798702512 1951799380 -453709888 -212532736</internalNodes>
          <leafValues>
            -2.8135311603546143e-01 1.9144991040229797e-01</leafValues></_>
        <_>
          <internalNodes>
            0 -1 521 683528960 251587805 2147286839 771749887 -40178536
            -126158338 -1292058712 545652575</internalNodes>
          <leafValues>
            -3.0968990921974182e-01 1.6645841300487518e-01</leafValues></_>
        <_>
          <internalNodes>
            0 -1 106 -1348550669 -1360068694 1067832051 -453187278
            -1049861 -1880337416 1476261879 -536871779</internalNodes>
          <leafValues>
            -2.2639104723930359e-01 2.1968133747577667e-01</leafValues></_>
        <_>
          <internalNodes>
            0 -1 171 -83888129 -68519073 -84223362 -201659702 325312493
            -212834314 1409350606 2000113863</internalNodes>
          <leafValues>
            -1.9189162552356720e-01 2.4849039316177368e-01</leafValues></_>
        <_>
          <internalNodes>
            0 -1 573 -16777643 1318059896 2139945471 -87117858 -2188
            2108405654 -1476402220 -119865616</internalNodes>
          <leafValues>
            -2.5143662095069885e-01 1.8915553390979767e-01</leafValues></_>
        <_>
          <internalNodes>
            0 -1 344 -42214076 1437652396 1610530648 436207290
            -262932044 -1183597084 -1363679112 149672187</internalNodes>
          <leafValues>
            -2.4298128485679626e-01 1.7918817698955536e-01</leafValues></_>
        <_>
          <internalNodes>
            0 -1 287 1658739797 -17138433 2029412223 443694031
            -597140428 -50697186 -69570819 -80020994</internalNodes>
          <leafValues>
            -2.1592260897159576e-01 2.0604123175144196e-01</leafValues></_>
        <_>
          <internalNodes>
            0 -1 156 1554129104 -1686552 -10736131 -33807144 1051796880
            -943017223 -1663426659 999899669</internalNodes>
          <leafValues>
            -2.6823884248733521e-01 1.6278149187564850e-01</leafValues></_>
        <_>
          <internalNodes>
            0 -1 590 1743776691 -1900347777 1035982400 -1432158718
            -539363867 -862716449 -708348592 -570425357</internalNodes>
          <leafValues>
            -2.0959855616092682e-01 2.1322849392890930e-01</leafValues></_>
        <_>
          <internalNodes>
            0 -1 403 -457306799 -922865665 1858461695 -1883308577
            -692772844 -1392721986 -1648591079 -860334763</internalNodes>
          <leafValues>
            -2.4788932502269745e-01 1.7388144135475159e-01</leafValues></_>
        <_>
          <internalNodes>
            0 -1 243 -184549453 1568145319 -990843119 -788689185
            -16323697 161107331 -16794785 -1917868177</internalNodes>
          <leafValues>
            -1.4735469222068787e-01 2.9741466045379639e-01</leafValues></_>
        <_>
          <internalNodes>
            0 -1 484 -58686064 2087464756 -1622761473 -1075269581 61116
            -1377682011 490858173 220464177</internalNodes>
          <leafValues>
            -2.9805770516395569e-01 1.4119920134544373e-01</leafValues></_>
        <_>
          <internalNodes>
            0 -1 63 -27267537 -139112641 2054609656 1914896383
            1249865296 -548185793 -687870756 -212338690</internalNodes>
          <leafValues>
            -1.9864633679389954e-01 2.1963322162628174e-01</leafValues></_>
        <_>
          <internalNodes>
            0 -1 276 2859296 -2138506837 -1494853888 -4295708 121066679
            1123727775 95867184 -588270084</internalNodes>
          <leafValues>
            -3.0721288919448853e-01 1.3659664988517761e-01</leafValues></_>
        <_>
          <internalNodes>
            0 -1 357 -893201292 -34253413 -1758282753 -313987 799783352
            -269746466 2142978043 -1078253414</internalNodes>
          <leafValues>
            -1.7119997739791870e-01 2.5282949209213257e-01</leafValues></_>
        <_>
          <internalNodes>
            0 -1 296 -570497376 398000113 -325696940 1503520715
            1432765621 -32805 1229848622 1146080910</internalNodes>
          <leafValues>
            -2.2517971694469452e-01 1.9082480669021606e-01</leafValues></_>
        <_>
          <internalNodes>
            0 -1 77 -287316165 1826619247 1985903870 -222367750
            1185891453 1223091039 1190606160 -134217745</internalNodes>
          <leafValues>
            -2.6145678758621216e-01 1.5674306452274323e-01</leafValues></_>
        <_>
          <internalNodes>
            0 -1 466 -852496973 201513104 358961489 -1512637224
            -298852933 -1694370249 1414424059 -862982677</internalNodes>
          <leafValues>
            -1.7109458148479462e-01 2.4134203791618347e-01</leafValues></_>
        <_>
          <internalNodes>
            0 -1 229 -1465248748 -1934882387 -1610721871 -30929715
            -1074889235 -1074140483 -1141793795 -1170723431</internalNodes>
          <leafValues>
            -2.8049358725547791e-01 1.4021910727024078e-01</leafValues></_>
        <_>
          <internalNodes>
            0 -1 577 -1442853361 2004228991 1722528499 543812587
            -152092160 1969175899 -956374336 1647508143</internalNodes>
          <leafValues>
            -2.7303305268287659e-01 1.4490757882595062e-01</leafValues></_>
        <_>
          <internalNodes>
            0 -1 354 2094856688 -2188076 -54528003 -10763 -1482507272
            -6504777 -1342505735 -1615130373</internalNodes>
          <leafValues>
            -1.5071664750576019e-01 2.7336925268173218e-01</leafValues></_>
        <_>
          <internalNodes>
            0 -1 337 1941960879 532393514 -671285521 -773916948
            1412911871 2113202174 1350041083 -503580673</internalNodes>
          <leafValues>
            -1.6529224812984467e-01 2.4008251726627350e-01</leafValues></_>
        <_>
          <internalNodes>
            0 -1 548 448468243 1052295094 771223031 514784087
            -1698973964 -2115845 -1380192336 -30343196</internalNodes>
          <leafValues>
            -2.1735638380050659e-01 1.7810407280921936e-01</leafValues></_>
        <_>
          <internalNodes>
            0 -1 89 -408230798 -408246560 498478975 -18216784 -551211549
            1864813682 935294975 -1084299</internalNodes>
          <leafValues>
            -1.9684845209121704e-01 2.0046390593051910e-01</leafValues></_>
        <_>
          <internalNodes>
            0 -1 582 -674241264 -2030785426 -1730278240 1838473206
            903014320 200766275 1429640122 2007017395</internalNodes>
          <leafValues>
            -2.4756903946399689e-01 1.5426433086395264e-01</leafValues></_>
        <_>
          <internalNodes>
            0 -1 254 -1360033116 -327303795 -1434669849 -1375219997
            -211977215 243125977 1584297539 1241961475</internalNodes>
          <leafValues>
            -3.0811524391174316e-01 1.2601265311241150e-01</leafValues></_>
        <_>
          <internalNodes>
            0 -1 181 993831554 1637289375 784236216 18172466 -1141391990
            -285474817 1339997482 324110978</internalNodes>
          <leafValues>
            -3.4512895345687866e-01 1.0833571851253510e-01</leafValues></_>
        <_>
          <internalNodes>
            0 -1 109 -1699040617 -387285354 2136325949 -319500289
            -540805135 -84672777 -1487966425 -928550937</internalNodes>
          <leafValues>
            -2.1306511759757996e-01 1.8747371435165405e-01</leafValues></_>
        <_>
          <internalNodes>
            0 -1 382 -495197169 1471334222 -88080770 -617444354
            1651274863 810757981 -1546324033 -428015755</internalNodes>
          <leafValues>
            -2.2731119394302368e-01 1.7191599309444427e-01</leafValues></_>
        <_>
          <internalNodes>
            0 -1 217 1610510206 2126687840 -540087779 -2023382117
            -1483164480 559993748 -1044177146 1263490191</internalNodes>
          <leafValues>
            -2.3719802498817444e-01 1.7194278538227081e-01</leafValues></_>
        <_>
          <internalNodes>
            0 -1 126 -320134617 -22381837 -1294041161 -16845077
            526269711 -67144769 -269138512 -153189964</internalNodes>
          <leafValues>
            -2.1546487510204315e-01 1.8526519834995270e-01</leafValues></_>
        <_>
          <internalNodes>
            0 -1 68 1663543979 -487683426 1675881078 -33632552
            1999566555 -1484021282 1475826647 1607465620</internalNodes>
          <leafValues>
            -1.9524194300174713e-01 1.9393670558929443e-01</leafValues></_>
        <_>
          <internalNodes>
            0 -1 204 205651968 502566084 -1350017231 -34281802
            1853820209 -117691927 -298094692 139207692</internalNodes>
          <leafValues>
            -3.9223328232765198e-01 9.5960445702075958e-02</leafValues></_>
        <_>
          <internalNodes>
            0 -1 346 -30016268 -1666122882 1571814903 -1623229827
            -1530946315 -1165590826 -1077957461 163567871</internalNodes>
          <leafValues>
            -1.5565602481365204e-01 2.4639903008937836e-01</leafValues></_>
        <_>
          <internalNodes>
            0 -1 552 -613424606 745378166 -277985134 1117540854
            -304646329 37059863 -1208523040 -254050313</internalNodes>
          <leafValues>
            -3.4424254298210144e-01 1.1686808615922928e-01</leafValues></_>
        <_>
          <internalNodes>
            0 -1 359 3562612 -1158662791 -538025985 536756150 800380404
            -621780295 -1381797889 -1353044365</internalNodes>
          <leafValues>
            -2.4127317965030670e-01 1.5553979575634003e-01</leafValues></_>
        <_>
          <internalNodes>
            0 -1 9 -1291862203 584967480 -1366807805 -523622562
            650083620 1400888253 -1346150656 -3514403</internalNodes>
          <leafValues>
            -2.2237628698348999e-01 1.8057470023632050e-01</leafValues></_>
        <_>
          <internalNodes>
            0 -1 119 -1371233024 -1468084670 -1369166059 -1560758
            -1560164958 -469865833 -1696189167 -1439429766</internalNodes>
          <leafValues>
            -3.9187532663345337e-01 9.5219701528549194e-02</leafValues></_></weakClassifiers></_>
    <!-- stage 12 -->
    <_>
      <maxWeakCount>51</maxWeakCount>
      <stageThreshold>-2.4307208061218262e+00</stageThreshold>
      <weakClassifiers>
        <_>
          <internalNodes>
            0 -1 515 -65 -1 -270667777 -8193 -16449 -8388801 -1346392145
            -1</internalNodes>
          <leafValues>
            -6.1829715967178345e-01 9.6383810043334961e-02</leafValues></_>
        <_>
          <internalNodes>
            0 -1 192 -11015169 -80224337 -208360792 -575935862
            -140513361 -8513 -33830258 -14693746</internalNodes>
          <leafValues>
            -3.8369488716125488e-01 2.2638122737407684e-01</leafValues></_>
        <_>
          <internalNodes>
            0 -1 159 -177867276 -180228148 -50661996 -33555461
            -1857686538 -570425409 1141240315 -34625057</internalNodes>
          <leafValues>
            -3.2633197307586670e-01 2.3606593906879425e-01</leafValues></_>
        <_>
          <internalNodes>
            0 -1 470 -14221388 -5186320 -11779 -66052 -13894731 -7603211
            -1883401731 -44579</internalNodes>
          <leafValues>
            -2.7880328893661499e-01 2.3888853192329407e-01</leafValues></_>
        <_>
          <internalNodes>
            0 -1 525 1224363022 -587313441 -129040386 2083158990
            -186245940 -52543908 -16842756 -98373686</internalNodes>
          <leafValues>
            -2.6378372311592102e-01 2.5180739164352417e-01</leafValues></_>
        <_>
          <internalNodes>
            0 -1 218 1913838327 -135113089 1060298750 1606287946
            660854271 -8960769 2070970047 2138259526</internalNodes>
          <leafValues>
            -2.2551514208316803e-01 2.5505274534225464e-01</leafValues></_>
        <_>
          <internalNodes>
            0 -1 37 -4353 -14437353 -227609861 539164415 1324342871
            2132000631 -17301505 -197656581</internalNodes>
          <leafValues>
            -2.3392254114151001e-01 2.4108220636844635e-01</leafValues></_>
        <_>
          <internalNodes>
            0 -1 368 -17830105 -4177 -1 -67113041 -536899589 -270337
            -271843393 -353377789</internalNodes>
          <leafValues>
            -1.5750217437744141e-01 3.4311407804489136e-01</leafValues></_>
        <_>
